digraph Tree {
node [shape=box, style="filled", color="black"] ;
0 [label="concave points_worst <= 0.146\nentropy = 0.958\nsamples = 250\nvalue = [247, 151]\nclass = benign", fillcolor="#f5ceb2"] ;
1 [label="area_mean <= 700.05\nentropy = 0.323\nsamples = 165\nvalue = [240, 15]\nclass = benign", fillcolor="#e78945"] ;
0 -> 1 [labeldistance=2.5, labelangle=45, headlabel="True"] ;
2 [label="concave points_worst <= 0.111\nentropy = 0.124\nsamples = 150\nvalue = [232, 4]\nclass = benign", fillcolor="#e5833c"] ;
1 -> 2 ;
3 [label="entropy = 0.0\nsamples = 133\nvalue = [212, 0]\nclass = benign", fillcolor="#e58139"] ;
2 -> 3 ;
4 [label="concavity_se <= 0.045\nentropy = 0.65\nsamples = 17\nvalue = [20, 4]\nclass = benign", fillcolor="#ea9a61"] ;
2 -> 4 ;
5 [label="entropy = 0.286\nsamples = 13\nvalue = [19, 1]\nclass = benign", fillcolor="#e68843"] ;
4 -> 5 ;
6 [label="entropy = 0.811\nsamples = 4\nvalue = [1, 3]\nclass = malignant", fillcolor="#7bbeee"] ;
4 -> 6 ;
7 [label="texture_mean <= 18.6\nentropy = 0.982\nsamples = 15\nvalue = [8, 11]\nclass = malignant", fillcolor="#c9e4f8"] ;
1 -> 7 ;
8 [label="fractal_dimension_se <= 0.003\nentropy = 0.503\nsamples = 7\nvalue = [8, 1]\nclass = benign", fillcolor="#e89152"] ;
7 -> 8 ;
9 [label="entropy = 0.0\nsamples = 5\nvalue = [7, 0]\nclass = benign", fillcolor="#e58139"] ;
8 -> 9 ;
10 [label="entropy = 1.0\nsamples = 2\nvalue = [1, 1]\nclass = benign", fillcolor="#ffffff"] ;
8 -> 10 ;
11 [label="entropy = 0.0\nsamples = 8\nvalue = [0, 10]\nclass = malignant", fillcolor="#399de5"] ;
7 -> 11 ;
12 [label="concave points_mean <= 0.057\nentropy = 0.282\nsamples = 85\nvalue = [7, 136]\nclass = malignant", fillcolor="#43a2e6"] ;
0 -> 12 [labeldistance=2.5, labelangle=-45, headlabel="False"] ;
13 [label="concave points_se <= 0.011\nentropy = 0.918\nsamples = 5\nvalue = [6, 3]\nclass = benign", fillcolor="#f2c09c"] ;
12 -> 13 ;
14 [label="entropy = 0.0\nsamples = 2\nvalue = [0, 3]\nclass = malignant", fillcolor="#399de5"] ;
13 -> 14 ;
15 [label="entropy = 0.0\nsamples = 3\nvalue = [6, 0]\nclass = benign", fillcolor="#e58139"] ;
13 -> 15 ;
16 [label="concavity_se <= 0.081\nentropy = 0.063\nsamples = 80\nvalue = [1, 133]\nclass = malignant", fillcolor="#3a9ee5"] ;
12 -> 16 ;
17 [label="entropy = 0.0\nsamples = 78\nvalue = [0, 132]\nclass = malignant", fillcolor="#399de5"] ;
16 -> 17 ;
18 [label="entropy = 1.0\nsamples = 2\nvalue = [1, 1]\nclass = benign", fillcolor="#ffffff"] ;
16 -> 18 ;
}